digraph Tree {
node [shape=box, style="filled, rounded", color="black", fontname=helvetica] ;
edge [fontname=helvetica] ;
0 [label="sepal_length <= 5.45\nimpurity = 0.6667\nsamples = 150\nvalue = [50, 50, 50]\nclass = Iris-setosa", fillcolor="#e5813900"] ;
1 [label="petal_length <= 2.45\nimpurity = 0.2374\nsamples = 52\nvalue = [45, 6, 1]\nclass = Iris-setosa", fillcolor="#e58139d8"] ;
0 -> 1 [labeldistance=2.5, labelangle=45, headlabel="True"] ;
2 [label="impurity = 0.0\nsamples = 45\nvalue = [45, 0, 0]\nclass = Iris-setosa", fillcolor="#e58139ff"] ;
1 -> 2 ;
3 [label="petal_width <= 1.6\nimpurity = 0.2449\nsamples = 7\nvalue = [0, 6, 1]\nclass = Iris-versicolor", fillcolor="#39e581d4"] ;
1 -> 3 ;
4 [label="impurity = 0.0\nsamples = 6\nvalue = [0, 6, 0]\nclass = Iris-versicolor", fillcolor="#39e581ff"] ;
3 -> 4 ;
5 [label="impurity = 0.0\nsamples = 1\nvalue = [0, 0, 1]\nclass = Iris-virginica", fillcolor="#8139e5ff"] ;
3 -> 5 ;
6 [label="petal_width <= 1.75\nimpurity = 0.5458\nsamples = 98\nvalue = [5, 44, 49]\nclass = Iris-virginica", fillcolor="#8139e518"] ;
0 -> 6 [labeldistance=2.5, labelangle=-45, headlabel="False"] ;
7 [label="petal_width <= 0.7\nimpurity = 0.301\nsamples = 52\nvalue = [5, 43, 4]\nclass = Iris-versicolor", fillcolor="#39e581ce"] ;
6 -> 7 ;
8 [label="impurity = 0.0\nsamples = 5\nvalue = [5, 0, 0]\nclass = Iris-setosa", fillcolor="#e58139ff"] ;
7 -> 8 ;
9 [label="petal_width <= 1.35\nimpurity = 0.1557\nsamples = 47\nvalue = [0, 43, 4]\nclass = Iris-versicolor", fillcolor="#39e581e7"] ;
7 -> 9 ;
10 [label="impurity = 0.0\nsamples = 24\nvalue = [0, 24, 0]\nclass = Iris-versicolor", fillcolor="#39e581ff"] ;
9 -> 10 ;
11 [label="sepal_length <= 7.1\nimpurity = 0.2873\nsamples = 23\nvalue = [0, 19, 4]\nclass = Iris-versicolor", fillcolor="#39e581c9"] ;
9 -> 11 ;
12 [label="petal_length <= 4.95\nimpurity = 0.2355\nsamples = 22\nvalue = [0, 19, 3]\nclass = Iris-versicolor", fillcolor="#39e581d7"] ;
11 -> 12 ;
13 [label="impurity = 0.0\nsamples = 17\nvalue = [0, 17, 0]\nclass = Iris-versicolor", fillcolor="#39e581ff"] ;
12 -> 13 ;
14 [label="petal_width <= 1.55\nimpurity = 0.48\nsamples = 5\nvalue = [0, 2, 3]\nclass = Iris-virginica", fillcolor="#8139e555"] ;
12 -> 14 ;
15 [label="impurity = 0.0\nsamples = 3\nvalue = [0, 0, 3]\nclass = Iris-virginica", fillcolor="#8139e5ff"] ;
14 -> 15 ;
16 [label="impurity = 0.0\nsamples = 2\nvalue = [0, 2, 0]\nclass = Iris-versicolor", fillcolor="#39e581ff"] ;
14 -> 16 ;
17 [label="impurity = 0.0\nsamples = 1\nvalue = [0, 0, 1]\nclass = Iris-virginica", fillcolor="#8139e5ff"] ;
11 -> 17 ;
18 [label="petal_width <= 1.85\nimpurity = 0.0425\nsamples = 46\nvalue = [0, 1, 45]\nclass = Iris-virginica", fillcolor="#8139e5f9"] ;
6 -> 18 ;
19 [label="sepal_width <= 3.15\nimpurity = 0.1528\nsamples = 12\nvalue = [0, 1, 11]\nclass = Iris-virginica", fillcolor="#8139e5e8"] ;
18 -> 19 ;
20 [label="impurity = 0.0\nsamples = 10\nvalue = [0, 0, 10]\nclass = Iris-virginica", fillcolor="#8139e5ff"] ;
19 -> 20 ;
21 [label="sepal_length <= 6.55\nimpurity = 0.5\nsamples = 2\nvalue = [0, 1, 1]\nclass = Iris-versicolor", fillcolor="#39e58100"] ;
19 -> 21 ;
22 [label="impurity = 0.0\nsamples = 1\nvalue = [0, 1, 0]\nclass = Iris-versicolor", fillcolor="#39e581ff"] ;
21 -> 22 ;
23 [label="impurity = 0.0\nsamples = 1\nvalue = [0, 0, 1]\nclass = Iris-virginica", fillcolor="#8139e5ff"] ;
21 -> 23 ;
24 [label="impurity = 0.0\nsamples = 34\nvalue = [0, 0, 34]\nclass = Iris-virginica", fillcolor="#8139e5ff"] ;
18 -> 24 ;
}